network unknown {
}
variable ca {
    type discrete [ 4 ] { 0.0, 1.0, 2.0, 3.0 };
    property weight = None ;
}
variable cp {
    type discrete [ 4 ] { 1.0, 2.0, 3.0, 4.0 };
    property weight = None ;
}
variable exang {
    type discrete [ 2 ] { 0.0, 1.0 };
    property weight = None ;
}
variable hd {
    type discrete [ 2 ] { 0, 1 };
    property weight = None ;
}
variable oldpeak {
    type discrete [ 2 ] { Alto, Normal };
    property weight = None ;
}
variable sex {
    type discrete [ 2 ] { 0.0, 1.0 };
    property weight = None ;
}
variable slope {
    type discrete [ 3 ] { 1.0, 2.0, 3.0 };
    property weight = None ;
}
variable thal {
    type discrete [ 3 ] { 3.0, 6.0, 7.0 };
    property weight = None ;
}
variable thalach {
    type discrete [ 3 ] { Alta, Bajo, Normal };
    property weight = None ;
}
probability ( ca ) {
    table 0.5945945945945946, 0.2072072072072072, 0.12162162162162163, 0.07657657657657657 ;
}
probability ( cp | exang ) {
    ( 0.0 ) 0.10416666666666667, 0.20833333333333334, 0.3680555555555556, 0.3194444444444444;
    ( 1.0 ) 0.02564102564102564, 0.02564102564102564, 0.1282051282051282, 0.8205128205128205;

}
probability ( exang ) {
    table 0.6486486486486487, 0.35135135135135137 ;
}
probability ( hd | ca, cp, thal ) {
    ( 0.0, 1.0, 3.0 ) 0.8, 0.2;
    ( 0.0, 1.0, 6.0 ) 1.0, 0.0;
    ( 0.0, 1.0, 7.0 ) 0.6666666666666666, 0.3333333333333333;
    ( 0.0, 2.0, 3.0 ) 1.0, 0.0;
    ( 0.0, 2.0, 6.0 ) 1.0, 0.0;
    ( 0.0, 2.0, 7.0 ) 0.6, 0.4;
    ( 0.0, 3.0, 3.0 ) 0.8888888888888888, 0.1111111111111111;
    ( 0.0, 3.0, 6.0 ) 0.5, 0.5;
    ( 0.0, 3.0, 7.0 ) 0.7777777777777778, 0.2222222222222222;
    ( 0.0, 4.0, 3.0 ) 0.7777777777777778, 0.2222222222222222;
    ( 0.0, 4.0, 6.0 ) 0.6, 0.4;
    ( 0.0, 4.0, 7.0 ) 0.21052631578947367, 0.7894736842105263;
    ( 1.0, 1.0, 3.0 ) 0.5, 0.5;
    ( 1.0, 1.0, 6.0 ) 0.5, 0.5;
    ( 1.0, 1.0, 7.0 ) 0.5, 0.5;
    ( 1.0, 2.0, 3.0 ) 0.6, 0.4;
    ( 1.0, 2.0, 6.0 ) 0.5, 0.5;
    ( 1.0, 2.0, 7.0 ) 0.0, 1.0;
    ( 1.0, 3.0, 3.0 ) 1.0, 0.0;
    ( 1.0, 3.0, 6.0 ) 0.0, 1.0;
    ( 1.0, 3.0, 7.0 ) 0.5, 0.5;
    ( 1.0, 4.0, 3.0 ) 0.0, 1.0;
    ( 1.0, 4.0, 6.0 ) 0.0, 1.0;
    ( 1.0, 4.0, 7.0 ) 0.05555555555555555, 0.9444444444444444;
    ( 2.0, 1.0, 3.0 ) 0.3333333333333333, 0.6666666666666666;
    ( 2.0, 1.0, 6.0 ) 0.5, 0.5;
    ( 2.0, 1.0, 7.0 ) 0.5, 0.5;
    ( 2.0, 2.0, 3.0 ) 0.0, 1.0;
    ( 2.0, 2.0, 6.0 ) 0.5, 0.5;
    ( 2.0, 2.0, 7.0 ) 0.5, 0.5;
    ( 2.0, 3.0, 3.0 ) 1.0, 0.0;
    ( 2.0, 3.0, 6.0 ) 0.5, 0.5;
    ( 2.0, 3.0, 7.0 ) 0.0, 1.0;
    ( 2.0, 4.0, 3.0 ) 0.5, 0.5;
    ( 2.0, 4.0, 6.0 ) 0.0, 1.0;
    ( 2.0, 4.0, 7.0 ) 0.0, 1.0;
    ( 3.0, 1.0, 3.0 ) 0.5, 0.5;
    ( 3.0, 1.0, 6.0 ) 0.5, 0.5;
    ( 3.0, 1.0, 7.0 ) 0.5, 0.5;
    ( 3.0, 2.0, 3.0 ) 0.5, 0.5;
    ( 3.0, 2.0, 6.0 ) 0.5, 0.5;
    ( 3.0, 2.0, 7.0 ) 0.5, 0.5;
    ( 3.0, 3.0, 3.0 ) 0.5, 0.5;
    ( 3.0, 3.0, 6.0 ) 0.5, 0.5;
    ( 3.0, 3.0, 7.0 ) 0.3333333333333333, 0.6666666666666666;
    ( 3.0, 4.0, 3.0 ) 0.0, 1.0;
    ( 3.0, 4.0, 6.0 ) 0.0, 1.0;
    ( 3.0, 4.0, 7.0 ) 0.125, 0.875;

}
probability ( oldpeak ) {
    table 0.42342342342342343, 0.5765765765765766 ;
}
probability ( sex ) {
    table 0.2972972972972973, 0.7027027027027027 ;
}
probability ( slope | oldpeak, thalach ) {
    ( Alto, Alta ) 0.3225806451612903, 0.6129032258064516, 0.06451612903225806;
    ( Alto, Bajo ) 0.0, 0.8846153846153846, 0.11538461538461539;
    ( Alto, Normal ) 0.13513513513513514, 0.7027027027027027, 0.16216216216216217;
    ( Normal, Alta ) 0.7808219178082192, 0.1780821917808219, 0.0410958904109589;
    ( Normal, Bajo ) 0.25, 0.75, 0.0;
    ( Normal, Normal ) 0.6153846153846154, 0.358974358974359, 0.02564102564102564;

}
probability ( thal | sex ) {
    ( 0.0 ) 0.8484848484848485, 0.015151515151515152, 0.13636363636363635;
    ( 1.0 ) 0.41025641025641024, 0.07692307692307693, 0.5128205128205128;

}
probability ( thalach ) {
    table 0.46846846846846846, 0.1891891891891892, 0.34234234234234234 ;
}
